digraph Tree {
node [shape=box] ;
0 [label="X[8] <= 0.0\ngini = 0.612\nsamples = 6232\nvalue = [2686, 2742, 400, 404]"] ;
1 [label="X[7] <= 0.0\ngini = 0.381\nsamples = 3490\nvalue = [2686, 0, 400, 404]"] ;
0 -> 1 [labeldistance=2.5, labelangle=45, headlabel="True"] ;
2 [label="X[8] <= -0.0\ngini = 0.5\nsamples = 804\nvalue = [0, 0, 400, 404]"] ;
1 -> 2 ;
3 [label="X[7] <= -0.0\ngini = 0.322\nsamples = 481\nvalue = [0, 0, 384, 97]"] ;
2 -> 3 ;
4 [label="X[8] <= -0.0\ngini = 0.492\nsamples = 167\nvalue = [0, 0, 73, 94]"] ;
3 -> 4 ;
5 [label="X[7] <= -0.0\ngini = 0.462\nsamples = 94\nvalue = [0, 0, 60, 34]"] ;
4 -> 5 ;
6 [label="X[8] <= -0.0\ngini = 0.384\nsamples = 27\nvalue = [0, 0, 7, 20]"] ;
5 -> 6 ;
7 [label="X[3] <= 1.22\ngini = 0.444\nsamples = 6\nvalue = [0, 0, 4, 2]"] ;
6 -> 7 ;
8 [label="X[10] <= 1.203\ngini = 0.444\nsamples = 3\nvalue = [0, 0, 1, 2]"] ;
7 -> 8 ;
9 [label="gini = 0.0\nsamples = 1\nvalue = [0, 0, 1, 0]"] ;
8 -> 9 ;
10 [label="gini = 0.0\nsamples = 2\nvalue = [0, 0, 0, 2]"] ;
8 -> 10 ;
11 [label="gini = 0.0\nsamples = 3\nvalue = [0, 0, 3, 0]"] ;
7 -> 11 ;
12 [label="X[7] <= -0.0\ngini = 0.245\nsamples = 21\nvalue = [0, 0, 3, 18]"] ;
6 -> 12 ;
13 [label="gini = 0.0\nsamples = 11\nvalue = [0, 0, 0, 11]"] ;
12 -> 13 ;
14 [label="X[11] <= 1.226\ngini = 0.42\nsamples = 10\nvalue = [0, 0, 3, 7]"] ;
12 -> 14 ;
15 [label="X[9] <= 1.219\ngini = 0.48\nsamples = 5\nvalue = [0, 0, 3, 2]"] ;
14 -> 15 ;
16 [label="gini = 0.0\nsamples = 2\nvalue = [0, 0, 0, 2]"] ;
15 -> 16 ;
17 [label="gini = 0.0\nsamples = 3\nvalue = [0, 0, 3, 0]"] ;
15 -> 17 ;
18 [label="gini = 0.0\nsamples = 5\nvalue = [0, 0, 0, 5]"] ;
14 -> 18 ;
19 [label="X[7] <= -0.0\ngini = 0.331\nsamples = 67\nvalue = [0, 0, 53, 14]"] ;
5 -> 19 ;
20 [label="X[8] <= -0.0\ngini = 0.439\nsamples = 40\nvalue = [0, 0, 27, 13]"] ;
19 -> 20 ;
21 [label="X[1] <= 1.243\ngini = 0.117\nsamples = 16\nvalue = [0, 0, 15, 1]"] ;
20 -> 21 ;
22 [label="gini = 0.0\nsamples = 15\nvalue = [0, 0, 15, 0]"] ;
21 -> 22 ;
23 [label="gini = 0.0\nsamples = 1\nvalue = [0, 0, 0, 1]"] ;
21 -> 23 ;
24 [label="X[5] <= 1.202\ngini = 0.5\nsamples = 24\nvalue = [0, 0, 12, 12]"] ;
20 -> 24 ;
25 [label="X[9] <= 1.195\ngini = 0.219\nsamples = 8\nvalue = [0, 0, 1, 7]"] ;
24 -> 25 ;
26 [label="X[7] <= -0.0\ngini = 0.5\nsamples = 2\nvalue = [0, 0, 1, 1]"] ;
25 -> 26 ;
27 [label="gini = 0.0\nsamples = 1\nvalue = [0, 0, 1, 0]"] ;
26 -> 27 ;
28 [label="gini = 0.0\nsamples = 1\nvalue = [0, 0, 0, 1]"] ;
26 -> 28 ;
29 [label="gini = 0.0\nsamples = 6\nvalue = [0, 0, 0, 6]"] ;
25 -> 29 ;
30 [label="X[7] <= -0.0\ngini = 0.43\nsamples = 16\nvalue = [0, 0, 11, 5]"] ;
24 -> 30 ;
31 [label="X[6] <= 1.234\ngini = 0.444\nsamples = 6\nvalue = [0, 0, 2, 4]"] ;
30 -> 31 ;
32 [label="gini = 0.0\nsamples = 3\nvalue = [0, 0, 0, 3]"] ;
31 -> 32 ;
33 [label="X[8] <= -0.0\ngini = 0.444\nsamples = 3\nvalue = [0, 0, 2, 1]"] ;
31 -> 33 ;
34 [label="gini = 0.0\nsamples = 1\nvalue = [0, 0, 0, 1]"] ;
33 -> 34 ;
35 [label="gini = 0.0\nsamples = 2\nvalue = [0, 0, 2, 0]"] ;
33 -> 35 ;
36 [label="X[8] <= -0.0\ngini = 0.18\nsamples = 10\nvalue = [0, 0, 9, 1]"] ;
30 -> 36 ;
37 [label="gini = 0.0\nsamples = 9\nvalue = [0, 0, 9, 0]"] ;
36 -> 37 ;
38 [label="gini = 0.0\nsamples = 1\nvalue = [0, 0, 0, 1]"] ;
36 -> 38 ;
39 [label="X[8] <= -0.0\ngini = 0.071\nsamples = 27\nvalue = [0, 0, 26, 1]"] ;
19 -> 39 ;
40 [label="gini = 0.0\nsamples = 24\nvalue = [0, 0, 24, 0]"] ;
39 -> 40 ;
41 [label="X[9] <= 1.238\ngini = 0.444\nsamples = 3\nvalue = [0, 0, 2, 1]"] ;
39 -> 41 ;
42 [label="gini = 0.0\nsamples = 2\nvalue = [0, 0, 2, 0]"] ;
41 -> 42 ;
43 [label="gini = 0.0\nsamples = 1\nvalue = [0, 0, 0, 1]"] ;
41 -> 43 ;
44 [label="X[8] <= -0.0\ngini = 0.293\nsamples = 73\nvalue = [0, 0, 13, 60]"] ;
4 -> 44 ;
45 [label="X[7] <= -0.0\ngini = 0.408\nsamples = 42\nvalue = [0, 0, 12, 30]"] ;
44 -> 45 ;
46 [label="X[1] <= 1.22\ngini = 0.278\nsamples = 30\nvalue = [0, 0, 5, 25]"] ;
45 -> 46 ;
47 [label="gini = 0.0\nsamples = 16\nvalue = [0, 0, 0, 16]"] ;
46 -> 47 ;
48 [label="X[4] <= 1.24\ngini = 0.459\nsamples = 14\nvalue = [0, 0, 5, 9]"] ;
46 -> 48 ;
49 [label="X[3] <= 1.239\ngini = 0.49\nsamples = 7\nvalue = [0, 0, 4, 3]"] ;
48 -> 49 ;
50 [label="X[7] <= -0.0\ngini = 0.48\nsamples = 5\nvalue = [0, 0, 2, 3]"] ;
49 -> 50 ;
51 [label="gini = 0.0\nsamples = 3\nvalue = [0, 0, 0, 3]"] ;
50 -> 51 ;
52 [label="gini = 0.0\nsamples = 2\nvalue = [0, 0, 2, 0]"] ;
50 -> 52 ;
53 [label="gini = 0.0\nsamples = 2\nvalue = [0, 0, 2, 0]"] ;
49 -> 53 ;
54 [label="X[1] <= 1.242\ngini = 0.245\nsamples = 7\nvalue = [0, 0, 1, 6]"] ;
48 -> 54 ;
55 [label="gini = 0.0\nsamples = 6\nvalue = [0, 0, 0, 6]"] ;
54 -> 55 ;
56 [label="gini = 0.0\nsamples = 1\nvalue = [0, 0, 1, 0]"] ;
54 -> 56 ;
57 [label="X[4] <= 1.225\ngini = 0.486\nsamples = 12\nvalue = [0, 0, 7, 5]"] ;
45 -> 57 ;
58 [label="X[2] <= 1.195\ngini = 0.42\nsamples = 10\nvalue = [0, 0, 7, 3]"] ;
57 -> 58 ;
59 [label="gini = 0.0\nsamples = 1\nvalue = [0, 0, 0, 1]"] ;
58 -> 59 ;
60 [label="X[8] <= -0.0\ngini = 0.346\nsamples = 9\nvalue = [0, 0, 7, 2]"] ;
58 -> 60 ;
61 [label="gini = 0.0\nsamples = 4\nvalue = [0, 0, 4, 0]"] ;
60 -> 61 ;
62 [label="X[7] <= -0.0\ngini = 0.48\nsamples = 5\nvalue = [0, 0, 3, 2]"] ;
60 -> 62 ;
63 [label="X[1] <= 1.206\ngini = 0.444\nsamples = 3\nvalue = [0, 0, 1, 2]"] ;
62 -> 63 ;
64 [label="gini = 0.0\nsamples = 2\nvalue = [0, 0, 0, 2]"] ;
63 -> 64 ;
65 [label="gini = 0.0\nsamples = 1\nvalue = [0, 0, 1, 0]"] ;
63 -> 65 ;
66 [label="gini = 0.0\nsamples = 2\nvalue = [0, 0, 2, 0]"] ;
62 -> 66 ;
67 [label="gini = 0.0\nsamples = 2\nvalue = [0, 0, 0, 2]"] ;
57 -> 67 ;
68 [label="X[4] <= 1.239\ngini = 0.062\nsamples = 31\nvalue = [0, 0, 1, 30]"] ;
44 -> 68 ;
69 [label="gini = 0.0\nsamples = 26\nvalue = [0, 0, 0, 26]"] ;
68 -> 69 ;
70 [label="X[0] <= 1.239\ngini = 0.32\nsamples = 5\nvalue = [0, 0, 1, 4]"] ;
68 -> 70 ;
71 [label="gini = 0.0\nsamples = 1\nvalue = [0, 0, 1, 0]"] ;
70 -> 71 ;
72 [label="gini = 0.0\nsamples = 4\nvalue = [0, 0, 0, 4]"] ;
70 -> 72 ;
73 [label="X[2] <= 1.202\ngini = 0.019\nsamples = 314\nvalue = [0, 0, 311, 3]"] ;
3 -> 73 ;
74 [label="X[2] <= 1.201\ngini = 0.103\nsamples = 55\nvalue = [0, 0, 52, 3]"] ;
73 -> 74 ;
75 [label="X[7] <= -0.0\ngini = 0.038\nsamples = 52\nvalue = [0, 0, 51, 1]"] ;
74 -> 75 ;
76 [label="X[2] <= 1.196\ngini = 0.198\nsamples = 9\nvalue = [0, 0, 8, 1]"] ;
75 -> 76 ;
77 [label="gini = 0.0\nsamples = 4\nvalue = [0, 0, 4, 0]"] ;
76 -> 77 ;
78 [label="X[2] <= 1.196\ngini = 0.32\nsamples = 5\nvalue = [0, 0, 4, 1]"] ;
76 -> 78 ;
79 [label="gini = 0.0\nsamples = 1\nvalue = [0, 0, 0, 1]"] ;
78 -> 79 ;
80 [label="gini = 0.0\nsamples = 4\nvalue = [0, 0, 4, 0]"] ;
78 -> 80 ;
81 [label="gini = 0.0\nsamples = 43\nvalue = [0, 0, 43, 0]"] ;
75 -> 81 ;
82 [label="X[8] <= -0.0\ngini = 0.444\nsamples = 3\nvalue = [0, 0, 1, 2]"] ;
74 -> 82 ;
83 [label="gini = 0.0\nsamples = 1\nvalue = [0, 0, 1, 0]"] ;
82 -> 83 ;
84 [label="gini = 0.0\nsamples = 2\nvalue = [0, 0, 0, 2]"] ;
82 -> 84 ;
85 [label="gini = 0.0\nsamples = 259\nvalue = [0, 0, 259, 0]"] ;
73 -> 85 ;
86 [label="X[7] <= -0.0\ngini = 0.094\nsamples = 323\nvalue = [0, 0, 16, 307]"] ;
2 -> 86 ;
87 [label="X[7] <= -0.0\ngini = 0.038\nsamples = 310\nvalue = [0, 0, 6, 304]"] ;
86 -> 87 ;
88 [label="X[7] <= -0.0\ngini = 0.014\nsamples = 287\nvalue = [0, 0, 2, 285]"] ;
87 -> 88 ;
89 [label="gini = 0.0\nsamples = 228\nvalue = [0, 0, 0, 228]"] ;
88 -> 89 ;
90 [label="X[4] <= 1.204\ngini = 0.065\nsamples = 59\nvalue = [0, 0, 2, 57]"] ;
88 -> 90 ;
91 [label="X[3] <= 1.204\ngini = 0.172\nsamples = 21\nvalue = [0, 0, 2, 19]"] ;
90 -> 91 ;
92 [label="X[5] <= 1.197\ngini = 0.095\nsamples = 20\nvalue = [0, 0, 1, 19]"] ;
91 -> 92 ;
93 [label="gini = 0.0\nsamples = 11\nvalue = [0, 0, 0, 11]"] ;
92 -> 93 ;
94 [label="X[11] <= 1.199\ngini = 0.198\nsamples = 9\nvalue = [0, 0, 1, 8]"] ;
92 -> 94 ;
95 [label="gini = 0.0\nsamples = 1\nvalue = [0, 0, 1, 0]"] ;
94 -> 95 ;
96 [label="gini = 0.0\nsamples = 8\nvalue = [0, 0, 0, 8]"] ;
94 -> 96 ;
97 [label="gini = 0.0\nsamples = 1\nvalue = [0, 0, 1, 0]"] ;
91 -> 97 ;
98 [label="gini = 0.0\nsamples = 38\nvalue = [0, 0, 0, 38]"] ;
90 -> 98 ;
99 [label="X[8] <= -0.0\ngini = 0.287\nsamples = 23\nvalue = [0, 0, 4, 19]"] ;
87 -> 99 ;
100 [label="X[6] <= 1.202\ngini = 0.494\nsamples = 9\nvalue = [0, 0, 4, 5]"] ;
99 -> 100 ;
101 [label="gini = 0.0\nsamples = 2\nvalue = [0, 0, 0, 2]"] ;
100 -> 101 ;
102 [label="X[9] <= 1.203\ngini = 0.49\nsamples = 7\nvalue = [0, 0, 4, 3]"] ;
100 -> 102 ;
103 [label="gini = 0.0\nsamples = 2\nvalue = [0, 0, 2, 0]"] ;
102 -> 103 ;
104 [label="X[5] <= 1.24\ngini = 0.48\nsamples = 5\nvalue = [0, 0, 2, 3]"] ;
102 -> 104 ;
105 [label="X[0] <= 1.217\ngini = 0.375\nsamples = 4\nvalue = [0, 0, 1, 3]"] ;
104 -> 105 ;
106 [label="X[3] <= 1.204\ngini = 0.5\nsamples = 2\nvalue = [0, 0, 1, 1]"] ;
105 -> 106 ;
107 [label="gini = 0.0\nsamples = 1\nvalue = [0, 0, 0, 1]"] ;
106 -> 107 ;
108 [label="gini = 0.0\nsamples = 1\nvalue = [0, 0, 1, 0]"] ;
106 -> 108 ;
109 [label="gini = 0.0\nsamples = 2\nvalue = [0, 0, 0, 2]"] ;
105 -> 109 ;
110 [label="gini = 0.0\nsamples = 1\nvalue = [0, 0, 1, 0]"] ;
104 -> 110 ;
111 [label="gini = 0.0\nsamples = 14\nvalue = [0, 0, 0, 14]"] ;
99 -> 111 ;
112 [label="X[10] <= 1.226\ngini = 0.355\nsamples = 13\nvalue = [0, 0, 10, 3]"] ;
86 -> 112 ;
113 [label="X[8] <= -0.0\ngini = 0.18\nsamples = 10\nvalue = [0, 0, 9, 1]"] ;
112 -> 113 ;
114 [label="gini = 0.0\nsamples = 9\nvalue = [0, 0, 9, 0]"] ;
113 -> 114 ;
115 [label="gini = 0.0\nsamples = 1\nvalue = [0, 0, 0, 1]"] ;
113 -> 115 ;
116 [label="X[2] <= 1.232\ngini = 0.444\nsamples = 3\nvalue = [0, 0, 1, 2]"] ;
112 -> 116 ;
117 [label="gini = 0.0\nsamples = 2\nvalue = [0, 0, 0, 2]"] ;
116 -> 117 ;
118 [label="gini = 0.0\nsamples = 1\nvalue = [0, 0, 1, 0]"] ;
116 -> 118 ;
119 [label="gini = 0.0\nsamples = 2686\nvalue = [2686, 0, 0, 0]"] ;
1 -> 119 ;
120 [label="gini = 0.0\nsamples = 2742\nvalue = [0, 2742, 0, 0]"] ;
0 -> 120 [labeldistance=2.5, labelangle=-45, headlabel="False"] ;
}
